<?xml version="1.0"?>
<opencv_storage>
<stage0>
  <maxWeakCount>6</maxWeakCount>
  <stageThreshold>-1.1259138584136963e+00</stageThreshold>
  <weakClassifiers>
    <_>
      <internalNodes>
        0 -1 61276 3.8906014524400234e-03</internalNodes>
      <leafValues>
        -7.5985664129257202e-01 9.0625000000000000e-01</leafValues></_>
    <_>
      <internalNodes>
        0 -1 84176 1.4164010062813759e-02</internalNodes>
      <leafValues>
        -7.6912730932235718e-01 8.3734232187271118e-01</leafValues></_>
    <_>
      <internalNodes>
        0 -1 69940 -1.6425546258687973e-02</internalNodes>
      <leafValues>
        6.5249377489089966e-01 -7.1379160881042480e-01</leafValues></_>
    <_>
      <internalNodes>
        0 -1 86239 -6.4948988147079945e-03</internalNodes>
      <leafValues>
        9.9507611989974976e-01 -5.3692388534545898e-01</leafValues></_>
    <_>
      <internalNodes>
        0 -1 113696 6.5381536260247231e-03</internalNodes>
      <leafValues>
        -5.1476180553436279e-01 9.6337777376174927e-01</leafValues></_>
    <_>
      <internalNodes>
        0 -1 72477 1.4083430171012878e-02</internalNodes>
      <leafValues>
        -8.8205313682556152e-01 6.3654738664627075e-01</leafValues></_></weakClassifiers></stage0>
</opencv_storage>
