<?xml version="1.0"?>
<opencv_storage>
<stage1>
  <maxWeakCount>7</maxWeakCount>
  <stageThreshold>-1.1246465444564819e+00</stageThreshold>
  <weakClassifiers>
    <_>
      <internalNodes>
        0 -1 71481 4.7709490172564983e-03</internalNodes>
      <leafValues>
        -7.4014335870742798e-01 8.4895831346511841e-01</leafValues></_>
    <_>
      <internalNodes>
        0 -1 98819 4.5054834336042404e-03</internalNodes>
      <leafValues>
        -6.0862743854522705e-01 8.4913003444671631e-01</leafValues></_>
    <_>
      <internalNodes>
        0 -1 38534 3.9851948618888855e-02</internalNodes>
      <leafValues>
        5.0614273548126221e-01 -9.8234552145004272e-01</leafValues></_>
    <_>
      <internalNodes>
        0 -1 9225 -1.0815896093845367e-02</internalNodes>
      <leafValues>
        4.0336230397224426e-01 -9.4847577810287476e-01</leafValues></_>
    <_>
      <internalNodes>
        0 -1 88712 2.4530904367566109e-02</internalNodes>
      <leafValues>
        3.2527491450309753e-01 -9.7669327259063721e-01</leafValues></_>
    <_>
      <internalNodes>
        0 -1 119126 -5.4974257946014404e-02</internalNodes>
      <leafValues>
        9.9610698223114014e-01 -4.8286703228950500e-01</leafValues></_>
    <_>
      <internalNodes>
        0 -1 70640 -4.3001729063689709e-03</internalNodes>
      <leafValues>
        9.5811098814010620e-01 -6.3370805978775024e-01</leafValues></_></weakClassifiers></stage1>
</opencv_storage>
